digraph Tree {
node [shape=box] ;
0 [label="X[7] <= -0.25\ngini = 0.666\nsamples = 9165\nvalue = [3154, 2822, 3189]"] ;
1 [label="X[6] <= -3170.3\ngini = 0.001\nsamples = 2701\nvalue = [2700, 0, 1]"] ;
0 -> 1 [labeldistance=2.5, labelangle=45, headlabel="True"] ;
2 [label="gini = 0.0\nsamples = 1\nvalue = [0, 0, 1]"] ;
1 -> 2 ;
3 [label="gini = 0.0\nsamples = 2700\nvalue = [2700, 0, 0]"] ;
1 -> 3 ;
4 [label="X[6] <= -3013.82\ngini = 0.561\nsamples = 6464\nvalue = [454, 2822, 3188]"] ;
0 -> 4 [labeldistance=2.5, labelangle=-45, headlabel="False"] ;
5 [label="X[7] <= 0.62\ngini = 0.341\nsamples = 3866\nvalue = [453, 325, 3088]"] ;
4 -> 5 ;
6 [label="gini = 0.0\nsamples = 3088\nvalue = [0, 0, 3088]"] ;
5 -> 6 ;
7 [label="X[6] <= -3398.02\ngini = 0.486\nsamples = 778\nvalue = [453, 325, 0]"] ;
5 -> 7 ;
8 [label="X[9] <= 5750.656\ngini = 0.25\nsamples = 492\nvalue = [420, 72, 0]"] ;
7 -> 8 ;
9 [label="X[3] <= 8700.5\ngini = 0.132\nsamples = 435\nvalue = [404, 31, 0]"] ;
8 -> 9 ;
10 [label="X[6] <= -3405.37\ngini = 0.078\nsamples = 396\nvalue = [380, 16, 0]"] ;
9 -> 10 ;
11 [label="X[7] <= 1.74\ngini = 0.065\nsamples = 389\nvalue = [376, 13, 0]"] ;
10 -> 11 ;
12 [label="X[8] <= 9.23\ngini = 0.06\nsamples = 388\nvalue = [376, 12, 0]"] ;
11 -> 12 ;
13 [label="X[11] <= 1.948\ngini = 0.055\nsamples = 386\nvalue = [375, 11, 0]"] ;
12 -> 13 ;
14 [label="X[6] <= -3614.59\ngini = 0.047\nsamples = 376\nvalue = [367, 9, 0]"] ;
13 -> 14 ;
15 [label="X[0] <= -10905.0\ngini = 0.016\nsamples = 256\nvalue = [254, 2, 0]"] ;
14 -> 15 ;
16 [label="X[7] <= 1.23\ngini = 0.008\nsamples = 249\nvalue = [248, 1, 0]"] ;
15 -> 16 ;
17 [label="X[3] <= 6171.0\ngini = 0.105\nsamples = 18\nvalue = [17, 1, 0]"] ;
16 -> 17 ;
18 [label="gini = 0.0\nsamples = 12\nvalue = [12, 0, 0]"] ;
17 -> 18 ;
19 [label="X[3] <= 6276.5\ngini = 0.278\nsamples = 6\nvalue = [5, 1, 0]"] ;
17 -> 19 ;
20 [label="gini = 0.0\nsamples = 1\nvalue = [0, 1, 0]"] ;
19 -> 20 ;
21 [label="gini = 0.0\nsamples = 5\nvalue = [5, 0, 0]"] ;
19 -> 21 ;
22 [label="gini = 0.0\nsamples = 231\nvalue = [231, 0, 0]"] ;
16 -> 22 ;
23 [label="X[8] <= 9.1\ngini = 0.245\nsamples = 7\nvalue = [6, 1, 0]"] ;
15 -> 23 ;
24 [label="gini = 0.0\nsamples = 6\nvalue = [6, 0, 0]"] ;
23 -> 24 ;
25 [label="gini = 0.0\nsamples = 1\nvalue = [0, 1, 0]"] ;
23 -> 25 ;
26 [label="X[6] <= -3613.75\ngini = 0.11\nsamples = 120\nvalue = [113, 7, 0]"] ;
14 -> 26 ;
27 [label="gini = 0.0\nsamples = 1\nvalue = [0, 1, 0]"] ;
26 -> 27 ;
28 [label="X[10] <= 0.984\ngini = 0.096\nsamples = 119\nvalue = [113, 6, 0]"] ;
26 -> 28 ;
29 [label="gini = 0.0\nsamples = 1\nvalue = [0, 1, 0]"] ;
28 -> 29 ;
30 [label="X[10] <= 1.4\ngini = 0.081\nsamples = 118\nvalue = [113, 5, 0]"] ;
28 -> 30 ;
31 [label="X[6] <= -3610.31\ngini = 0.037\nsamples = 106\nvalue = [104, 2, 0]"] ;
30 -> 31 ;
32 [label="X[6] <= -3611.42\ngini = 0.444\nsamples = 3\nvalue = [2, 1, 0]"] ;
31 -> 32 ;
33 [label="gini = 0.0\nsamples = 2\nvalue = [2, 0, 0]"] ;
32 -> 33 ;
34 [label="gini = 0.0\nsamples = 1\nvalue = [0, 1, 0]"] ;
32 -> 34 ;
35 [label="X[8] <= 9.11\ngini = 0.019\nsamples = 103\nvalue = [102, 1, 0]"] ;
31 -> 35 ;
36 [label="gini = 0.0\nsamples = 96\nvalue = [96, 0, 0]"] ;
35 -> 36 ;
37 [label="X[0] <= -14689.0\ngini = 0.245\nsamples = 7\nvalue = [6, 1, 0]"] ;
35 -> 37 ;
38 [label="X[9] <= 5523.53\ngini = 0.5\nsamples = 2\nvalue = [1, 1, 0]"] ;
37 -> 38 ;
39 [label="gini = 0.0\nsamples = 1\nvalue = [0, 1, 0]"] ;
38 -> 39 ;
40 [label="gini = 0.0\nsamples = 1\nvalue = [1, 0, 0]"] ;
38 -> 40 ;
41 [label="gini = 0.0\nsamples = 5\nvalue = [5, 0, 0]"] ;
37 -> 41 ;
42 [label="X[2] <= 5.5\ngini = 0.375\nsamples = 12\nvalue = [9, 3, 0]"] ;
30 -> 42 ;
43 [label="gini = 0.0\nsamples = 6\nvalue = [6, 0, 0]"] ;
42 -> 43 ;
44 [label="X[5] <= 12.5\ngini = 0.5\nsamples = 6\nvalue = [3, 3, 0]"] ;
42 -> 44 ;
45 [label="gini = 0.0\nsamples = 3\nvalue = [3, 0, 0]"] ;
44 -> 45 ;
46 [label="gini = 0.0\nsamples = 3\nvalue = [0, 3, 0]"] ;
44 -> 46 ;
47 [label="X[7] <= 1.49\ngini = 0.32\nsamples = 10\nvalue = [8, 2, 0]"] ;
13 -> 47 ;
48 [label="gini = 0.0\nsamples = 8\nvalue = [8, 0, 0]"] ;
47 -> 48 ;
49 [label="gini = 0.0\nsamples = 2\nvalue = [0, 2, 0]"] ;
47 -> 49 ;
50 [label="X[3] <= 6655.5\ngini = 0.5\nsamples = 2\nvalue = [1, 1, 0]"] ;
12 -> 50 ;
51 [label="gini = 0.0\nsamples = 1\nvalue = [1, 0, 0]"] ;
50 -> 51 ;
52 [label="gini = 0.0\nsamples = 1\nvalue = [0, 1, 0]"] ;
50 -> 52 ;
53 [label="gini = 0.0\nsamples = 1\nvalue = [0, 1, 0]"] ;
11 -> 53 ;
54 [label="X[10] <= 1.134\ngini = 0.49\nsamples = 7\nvalue = [4, 3, 0]"] ;
10 -> 54 ;
55 [label="gini = 0.0\nsamples = 3\nvalue = [0, 3, 0]"] ;
54 -> 55 ;
56 [label="gini = 0.0\nsamples = 4\nvalue = [4, 0, 0]"] ;
54 -> 56 ;
57 [label="X[6] <= -3605.21\ngini = 0.473\nsamples = 39\nvalue = [24, 15, 0]"] ;
9 -> 57 ;
58 [label="X[11] <= 1.435\ngini = 0.105\nsamples = 18\nvalue = [17, 1, 0]"] ;
57 -> 58 ;
59 [label="gini = 0.0\nsamples = 1\nvalue = [0, 1, 0]"] ;
58 -> 59 ;
60 [label="gini = 0.0\nsamples = 17\nvalue = [17, 0, 0]"] ;
58 -> 60 ;
61 [label="X[7] <= 1.29\ngini = 0.444\nsamples = 21\nvalue = [7, 14, 0]"] ;
57 -> 61 ;
62 [label="X[0] <= -15331.5\ngini = 0.375\nsamples = 8\nvalue = [6, 2, 0]"] ;
61 -> 62 ;
63 [label="gini = 0.0\nsamples = 5\nvalue = [5, 0, 0]"] ;
62 -> 63 ;
64 [label="X[10] <= 1.173\ngini = 0.444\nsamples = 3\nvalue = [1, 2, 0]"] ;
62 -> 64 ;
65 [label="gini = 0.0\nsamples = 1\nvalue = [1, 0, 0]"] ;
64 -> 65 ;
66 [label="gini = 0.0\nsamples = 2\nvalue = [0, 2, 0]"] ;
64 -> 66 ;
67 [label="X[2] <= 4.0\ngini = 0.142\nsamples = 13\nvalue = [1, 12, 0]"] ;
61 -> 67 ;
68 [label="gini = 0.0\nsamples = 1\nvalue = [1, 0, 0]"] ;
67 -> 68 ;
69 [label="gini = 0.0\nsamples = 12\nvalue = [0, 12, 0]"] ;
67 -> 69 ;
70 [label="X[3] <= 9527.0\ngini = 0.404\nsamples = 57\nvalue = [16, 41, 0]"] ;
8 -> 70 ;
71 [label="X[6] <= -3502.86\ngini = 0.5\nsamples = 33\nvalue = [16, 17, 0]"] ;
70 -> 71 ;
72 [label="X[5] <= 13.5\ngini = 0.454\nsamples = 23\nvalue = [15, 8, 0]"] ;
71 -> 72 ;
73 [label="X[3] <= 7751.0\ngini = 0.375\nsamples = 20\nvalue = [15, 5, 0]"] ;
72 -> 73 ;
74 [label="X[9] <= 6008.295\ngini = 0.375\nsamples = 4\nvalue = [1, 3, 0]"] ;
73 -> 74 ;
75 [label="gini = 0.0\nsamples = 1\nvalue = [1, 0, 0]"] ;
74 -> 75 ;
76 [label="gini = 0.0\nsamples = 3\nvalue = [0, 3, 0]"] ;
74 -> 76 ;
77 [label="X[9] <= 6768.353\ngini = 0.219\nsamples = 16\nvalue = [14, 2, 0]"] ;
73 -> 77 ;
78 [label="X[11] <= 1.655\ngini = 0.124\nsamples = 15\nvalue = [14, 1, 0]"] ;
77 -> 78 ;
79 [label="X[6] <= -3761.27\ngini = 0.5\nsamples = 2\nvalue = [1, 1, 0]"] ;
78 -> 79 ;
80 [label="gini = 0.0\nsamples = 1\nvalue = [1, 0, 0]"] ;
79 -> 80 ;
81 [label="gini = 0.0\nsamples = 1\nvalue = [0, 1, 0]"] ;
79 -> 81 ;
82 [label="gini = 0.0\nsamples = 13\nvalue = [13, 0, 0]"] ;
78 -> 82 ;
83 [label="gini = 0.0\nsamples = 1\nvalue = [0, 1, 0]"] ;
77 -> 83 ;
84 [label="gini = 0.0\nsamples = 3\nvalue = [0, 3, 0]"] ;
72 -> 84 ;
85 [label="X[1] <= -1.5\ngini = 0.18\nsamples = 10\nvalue = [1, 9, 0]"] ;
71 -> 85 ;
86 [label="X[0] <= -16319.5\ngini = 0.444\nsamples = 3\nvalue = [1, 2, 0]"] ;
85 -> 86 ;
87 [label="gini = 0.0\nsamples = 2\nvalue = [0, 2, 0]"] ;
86 -> 87 ;
88 [label="gini = 0.0\nsamples = 1\nvalue = [1, 0, 0]"] ;
86 -> 88 ;
89 [label="gini = 0.0\nsamples = 7\nvalue = [0, 7, 0]"] ;
85 -> 89 ;
90 [label="gini = 0.0\nsamples = 24\nvalue = [0, 24, 0]"] ;
70 -> 90 ;
91 [label="X[9] <= 5465.505\ngini = 0.204\nsamples = 286\nvalue = [33, 253, 0]"] ;
7 -> 91 ;
92 [label="X[6] <= -3228.27\ngini = 0.397\nsamples = 106\nvalue = [29, 77, 0]"] ;
91 -> 92 ;
93 [label="X[0] <= -12779.0\ngini = 0.499\nsamples = 50\nvalue = [26, 24, 0]"] ;
92 -> 93 ;
94 [label="X[3] <= 9950.5\ngini = 0.457\nsamples = 34\nvalue = [22, 12, 0]"] ;
93 -> 94 ;
95 [label="X[0] <= -14640.0\ngini = 0.391\nsamples = 30\nvalue = [22, 8, 0]"] ;
94 -> 95 ;
96 [label="X[9] <= 5424.0\ngini = 0.5\nsamples = 14\nvalue = [7, 7, 0]"] ;
95 -> 96 ;
97 [label="X[0] <= -17165.0\ngini = 0.42\nsamples = 10\nvalue = [3, 7, 0]"] ;
96 -> 97 ;
98 [label="gini = 0.0\nsamples = 2\nvalue = [2, 0, 0]"] ;
97 -> 98 ;
99 [label="X[9] <= 4735.656\ngini = 0.219\nsamples = 8\nvalue = [1, 7, 0]"] ;
97 -> 99 ;
100 [label="gini = 0.0\nsamples = 1\nvalue = [1, 0, 0]"] ;
99 -> 100 ;
101 [label="gini = 0.0\nsamples = 7\nvalue = [0, 7, 0]"] ;
99 -> 101 ;
102 [label="gini = 0.0\nsamples = 4\nvalue = [4, 0, 0]"] ;
96 -> 102 ;
103 [label="X[6] <= -3390.9\ngini = 0.117\nsamples = 16\nvalue = [15, 1, 0]"] ;
95 -> 103 ;
104 [label="gini = 0.0\nsamples = 1\nvalue = [0, 1, 0]"] ;
103 -> 104 ;
105 [label="gini = 0.0\nsamples = 15\nvalue = [15, 0, 0]"] ;
103 -> 105 ;
106 [label="gini = 0.0\nsamples = 4\nvalue = [0, 4, 0]"] ;
94 -> 106 ;
107 [label="X[0] <= -10886.5\ngini = 0.375\nsamples = 16\nvalue = [4, 12, 0]"] ;
93 -> 107 ;
108 [label="X[3] <= 5410.5\ngini = 0.245\nsamples = 14\nvalue = [2, 12, 0]"] ;
107 -> 108 ;
109 [label="X[7] <= 1.37\ngini = 0.48\nsamples = 5\nvalue = [2, 3, 0]"] ;
108 -> 109 ;
110 [label="gini = 0.0\nsamples = 2\nvalue = [2, 0, 0]"] ;
109 -> 110 ;
111 [label="gini = 0.0\nsamples = 3\nvalue = [0, 3, 0]"] ;
109 -> 111 ;
112 [label="gini = 0.0\nsamples = 9\nvalue = [0, 9, 0]"] ;
108 -> 112 ;
113 [label="gini = 0.0\nsamples = 2\nvalue = [2, 0, 0]"] ;
107 -> 113 ;
114 [label="X[0] <= -17844.0\ngini = 0.101\nsamples = 56\nvalue = [3, 53, 0]"] ;
92 -> 114 ;
115 [label="gini = 0.0\nsamples = 1\nvalue = [1, 0, 0]"] ;
114 -> 115 ;
116 [label="X[11] <= 1.449\ngini = 0.07\nsamples = 55\nvalue = [2, 53, 0]"] ;
114 -> 116 ;
117 [label="X[6] <= -3203.26\ngini = 0.231\nsamples = 15\nvalue = [2, 13, 0]"] ;
116 -> 117 ;
118 [label="gini = 0.0\nsamples = 1\nvalue = [1, 0, 0]"] ;
117 -> 118 ;
119 [label="X[11] <= 1.439\ngini = 0.133\nsamples = 14\nvalue = [1, 13, 0]"] ;
117 -> 119 ;
120 [label="gini = 0.0\nsamples = 13\nvalue = [0, 13, 0]"] ;
119 -> 120 ;
121 [label="gini = 0.0\nsamples = 1\nvalue = [1, 0, 0]"] ;
119 -> 121 ;
122 [label="gini = 0.0\nsamples = 40\nvalue = [0, 40, 0]"] ;
116 -> 122 ;
123 [label="X[3] <= 6475.0\ngini = 0.043\nsamples = 180\nvalue = [4, 176, 0]"] ;
91 -> 123 ;
124 [label="gini = 0.0\nsamples = 1\nvalue = [1, 0, 0]"] ;
123 -> 124 ;
125 [label="X[6] <= -3393.36\ngini = 0.033\nsamples = 179\nvalue = [3, 176, 0]"] ;
123 -> 125 ;
126 [label="X[3] <= 11868.5\ngini = 0.5\nsamples = 2\nvalue = [1, 1, 0]"] ;
125 -> 126 ;
127 [label="gini = 0.0\nsamples = 1\nvalue = [1, 0, 0]"] ;
126 -> 127 ;
128 [label="gini = 0.0\nsamples = 1\nvalue = [0, 1, 0]"] ;
126 -> 128 ;
129 [label="X[8] <= 8.81\ngini = 0.022\nsamples = 177\nvalue = [2, 175, 0]"] ;
125 -> 129 ;
130 [label="X[0] <= -17158.5\ngini = 0.5\nsamples = 2\nvalue = [1, 1, 0]"] ;
129 -> 130 ;
131 [label="gini = 0.0\nsamples = 1\nvalue = [0, 1, 0]"] ;
130 -> 131 ;
132 [label="gini = 0.0\nsamples = 1\nvalue = [1, 0, 0]"] ;
130 -> 132 ;
133 [label="X[5] <= 12.5\ngini = 0.011\nsamples = 175\nvalue = [1, 174, 0]"] ;
129 -> 133 ;
134 [label="X[6] <= -3226.49\ngini = 0.069\nsamples = 28\nvalue = [1, 27, 0]"] ;
133 -> 134 ;
135 [label="X[9] <= 5886.045\ngini = 0.245\nsamples = 7\nvalue = [1, 6, 0]"] ;
134 -> 135 ;
136 [label="gini = 0.0\nsamples = 6\nvalue = [0, 6, 0]"] ;
135 -> 136 ;
137 [label="gini = 0.0\nsamples = 1\nvalue = [1, 0, 0]"] ;
135 -> 137 ;
138 [label="gini = 0.0\nsamples = 21\nvalue = [0, 21, 0]"] ;
134 -> 138 ;
139 [label="gini = 0.0\nsamples = 147\nvalue = [0, 147, 0]"] ;
133 -> 139 ;
140 [label="X[6] <= -2895.67\ngini = 0.075\nsamples = 2598\nvalue = [1, 2497, 100]"] ;
4 -> 140 ;
141 [label="X[7] <= 0.24\ngini = 0.443\nsamples = 245\nvalue = [0, 164, 81]"] ;
140 -> 141 ;
142 [label="X[11] <= 1.187\ngini = 0.024\nsamples = 82\nvalue = [0, 1, 81]"] ;
141 -> 142 ;
143 [label="gini = 0.0\nsamples = 1\nvalue = [0, 1, 0]"] ;
142 -> 143 ;
144 [label="gini = 0.0\nsamples = 81\nvalue = [0, 0, 81]"] ;
142 -> 144 ;
145 [label="gini = 0.0\nsamples = 163\nvalue = [0, 163, 0]"] ;
141 -> 145 ;
146 [label="X[5] <= 15.5\ngini = 0.017\nsamples = 2353\nvalue = [1, 2333, 19]"] ;
140 -> 146 ;
147 [label="X[1] <= -6.0\ngini = 0.011\nsamples = 2342\nvalue = [1, 2329, 12]"] ;
146 -> 147 ;
148 [label="gini = 0.0\nsamples = 1\nvalue = [1, 0, 0]"] ;
147 -> 148 ;
149 [label="X[6] <= -2856.23\ngini = 0.01\nsamples = 2341\nvalue = [0, 2329, 12]"] ;
147 -> 149 ;
150 [label="X[7] <= 0.47\ngini = 0.192\nsamples = 65\nvalue = [0, 58, 7]"] ;
149 -> 150 ;
151 [label="gini = 0.0\nsamples = 7\nvalue = [0, 0, 7]"] ;
150 -> 151 ;
152 [label="gini = 0.0\nsamples = 58\nvalue = [0, 58, 0]"] ;
150 -> 152 ;
153 [label="X[6] <= -2767.34\ngini = 0.004\nsamples = 2276\nvalue = [0, 2271, 5]"] ;
149 -> 153 ;
154 [label="X[7] <= 0.15\ngini = 0.067\nsamples = 145\nvalue = [0, 140, 5]"] ;
153 -> 154 ;
155 [label="gini = 0.0\nsamples = 5\nvalue = [0, 0, 5]"] ;
154 -> 155 ;
156 [label="gini = 0.0\nsamples = 140\nvalue = [0, 140, 0]"] ;
154 -> 156 ;
157 [label="gini = 0.0\nsamples = 2131\nvalue = [0, 2131, 0]"] ;
153 -> 157 ;
158 [label="X[3] <= 12420.0\ngini = 0.463\nsamples = 11\nvalue = [0, 4, 7]"] ;
146 -> 158 ;
159 [label="gini = 0.0\nsamples = 7\nvalue = [0, 0, 7]"] ;
158 -> 159 ;
160 [label="gini = 0.0\nsamples = 4\nvalue = [0, 4, 0]"] ;
158 -> 160 ;
}
